SNNS network definition file V1.4-3D
generated at Thu Oct  1 16:13:18 2009

network name : default
source files :
no. of units : 49
no. of connections : 360
no. of unit types : 0
no. of site types : 0


learning function : BackpropBatch
update function   : Topological_Order


unit default section :

act      | bias     | st | subnet | layer | act func     | out func
---------|----------|----|--------|-------|--------------|-------------
 0.00000 |  0.00000 | h  |      0 |     1 | Act_Logistic | Out_Identity 
---------|----------|----|--------|-------|--------------|-------------


unit definition section :

no. | typeName | unitName | act      | bias     | st | position | act func     | out func | sites
----|----------|----------|----------|----------|----|----------|--------------|----------|-------
  1 |          | noName   |  0.35294 |  0.00153 | i  |  1, 1, 1 | Act_Identity |          | 
  2 |          | noName   |  0.48241 | -0.00021 | i  |  1, 2, 1 | Act_Identity |          | 
  3 |          | noName   |  0.00000 | -0.00731 | i  |  1, 3, 1 | Act_Identity |          | 
  4 |          | noName   |  0.00000 |  0.00303 | i  |  1, 4, 1 | Act_Identity |          | 
  5 |          | noName   |  0.00000 | -0.00329 | i  |  1, 5, 1 | Act_Identity |          | 
  6 |          | noName   |  0.35320 | -0.00438 | i  |  1, 6, 1 | Act_Identity |          | 
  7 |          | noName   |  0.04782 |  0.00166 | i  |  1, 7, 1 | Act_Identity |          | 
  8 |          | noName   |  0.11667 |  0.00677 | i  |  1, 8, 1 | Act_Identity |          | 
  9 |          | noName   |  0.57186 | -0.01326 | h  |  3, 1, 1 |||
 10 |          | noName   |  0.42012 |  0.01133 | h  |  4, 1, 1 |||
 11 |          | noName   |  0.38300 |  0.09965 | h  |  5, 1, 1 |||
 12 |          | noName   |  0.61468 | -0.12907 | h  |  6, 1, 1 |||
 13 |          | noName   |  0.37822 |  0.34847 | h  |  7, 1, 1 |||
 14 |          | noName   |  0.61421 | -0.12968 | h  |  8, 1, 1 |||
 15 |          | noName   |  0.37466 |  0.29707 | h  |  9, 1, 1 |||
 16 |          | noName   |  0.38849 |  0.07440 | h  | 10, 1, 1 |||
 17 |          | noName   |  0.42107 |  0.02123 | h  |  3, 2, 1 |||
 18 |          | noName   |  0.45784 |  0.00305 | h  |  4, 2, 1 |||
 19 |          | noName   |  0.58098 | -0.03620 | h  |  5, 2, 1 |||
 20 |          | noName   |  0.37599 |  0.26472 | h  |  6, 2, 1 |||
 21 |          | noName   |  0.38369 |  0.09399 | h  |  7, 2, 1 |||
 22 |          | noName   |  0.41530 |  0.01954 | h  |  8, 2, 1 |||
 23 |          | noName   |  0.52582 | -0.00114 | h  |  9, 2, 1 |||
 24 |          | noName   |  0.61056 | -0.11954 | h  | 10, 2, 1 |||
 25 |          | noName   |  0.50589 |  0.00174 | h  |  3, 3, 1 |||
 26 |          | noName   |  0.56219 | -0.02142 | h  |  4, 3, 1 |||
 27 |          | noName   |  0.39492 |  0.07622 | h  |  5, 3, 1 |||
 28 |          | noName   |  0.41962 |  0.02170 | h  |  6, 3, 1 |||
 29 |          | noName   |  0.52103 | -0.01072 | h  |  7, 3, 1 |||
 30 |          | noName   |  0.38135 |  0.13477 | h  |  8, 3, 1 |||
 31 |          | noName   |  0.37561 |  0.19914 | h  |  9, 3, 1 |||
 32 |          | noName   |  0.59407 | -0.04555 | h  | 10, 3, 1 |||
 33 |          | noName   |  0.39771 |  0.65684 | h  |  3, 4, 1 |||
 34 |          | noName   |  0.38105 |  0.13941 | h  |  4, 4, 1 |||
 35 |          | noName   |  0.40580 |  0.76218 | h  |  5, 4, 1 |||
 36 |          | noName   |  0.59597 | -0.05962 | h  |  6, 4, 1 |||
 37 |          | noName   |  0.37870 |  0.17857 | h  |  7, 4, 1 |||
 38 |          | noName   |  0.37461 |  0.25883 | h  |  8, 4, 1 |||
 39 |          | noName   |  0.59887 | -0.07167 | h  |  9, 4, 1 |||
 40 |          | noName   |  0.40081 |  0.05016 | h  | 10, 4, 1 |||
 41 |          | noName   |  0.62183 | -0.24602 | h  |  3, 5, 1 |||
 42 |          | noName   |  0.56363 | -0.01346 | h  |  4, 5, 1 |||
 43 |          | noName   |  0.58834 | -0.03409 | h  |  5, 5, 1 |||
 44 |          | noName   |  0.39496 |  0.06100 | h  |  6, 5, 1 |||
 45 |          | noName   |  0.37851 |  0.39432 | h  |  7, 5, 1 |||
 46 |          | noName   |  0.51180 | -0.00800 | h  |  8, 5, 1 |||
 47 |          | noName   |  0.61980 | -0.28620 | h  |  9, 5, 1 |||
 48 |          | noName   |  0.37689 |  0.33353 | h  | 10, 5, 1 |||
 49 |          | noName   |  0.06554 |  0.47096 | o  | 12, 1, 1 |||
----|----------|----------|----------|----------|----|----------|--------------|----------|-------


connection definition section :

target | site | source:weight
-------|------|---------------------------------------------------------------------------------------------------------------------
     9 |      |  8:-0.03159,  7: 0.20186,  6: 0.24530,  5:-0.04462,  4:-0.00325,  3:-0.07810,  2: 0.35302,  1: 0.11280
    10 |      |  8:-0.02878,  7:-0.20425,  6:-0.25033,  5: 0.01411,  4: 0.01156,  3: 0.07738,  2:-0.37178,  1:-0.14932
    11 |      |  8:-0.04007,  7:-0.36866,  6:-0.41662,  5: 0.05513,  4: 0.01402,  3: 0.16691,  2:-0.65030,  1:-0.26442
    12 |      |  8:-0.03166,  7: 0.41744,  6: 0.46852,  5:-0.08212,  4:-0.02569,  3:-0.20900,  2: 0.68926,  1: 0.23194
    13 |      |  8:-0.01888,  7:-0.59178,  6:-0.59688,  5: 0.07292,  4: 0.06025,  3: 0.35930,  2:-0.97825,  1:-0.37498
    14 |      |  8:-0.03685,  7: 0.41376,  6: 0.46129,  5:-0.09165,  4:-0.03386,  3:-0.21036,  2: 0.68425,  1: 0.24423
    15 |      |  8:-0.02603,  7:-0.54705,  6:-0.57394,  5: 0.06498,  4: 0.05349,  3: 0.33353,  2:-0.92882,  1:-0.36648
    16 |      |  8:-0.03795,  7:-0.33830,  6:-0.38718,  5: 0.04432,  4: 0.02241,  3: 0.15366,  2:-0.59472,  1:-0.23744
    17 |      |  8:-0.03336,  7:-0.19645,  6:-0.24753,  5: 0.02683,  4: 0.00541,  3: 0.06563,  2:-0.38012,  1:-0.15727
    18 |      |  8:-0.02923,  7:-0.09146,  6:-0.11816,  5:-0.00421,  4: 0.00649,  3: 0.02396,  2:-0.19231,  1:-0.08444
    19 |      |  8:-0.04135,  7: 0.23422,  6: 0.29711,  5:-0.05039,  4:-0.00577,  3:-0.09621,  2: 0.41773,  1: 0.14217
    20 |      |  8:-0.03322,  7:-0.51700,  6:-0.55753,  5: 0.07522,  4: 0.03993,  3: 0.29464,  2:-0.87927,  1:-0.34456
    21 |      |  8:-0.02805,  7:-0.37056,  6:-0.40617,  5: 0.04327,  4: 0.01715,  3: 0.17680,  2:-0.65072,  1:-0.25363
    22 |      |  8:-0.03208,  7:-0.21781,  6:-0.26736,  5: 0.03316,  4:-0.00145,  3: 0.07118,  2:-0.39919,  1:-0.17138
    23 |      |  8:-0.03944,  7: 0.08165,  6: 0.09195,  5:-0.03341,  4:-0.00087,  3:-0.03529,  2: 0.12687,  1: 0.03269
    24 |      |  8:-0.03017,  7: 0.39505,  6: 0.44721,  5:-0.08605,  4:-0.02420,  3:-0.18673,  2: 0.66222,  1: 0.21651
    25 |      |  8:-0.02115,  7: 0.02373,  6: 0.02658,  5:-0.01647,  4: 0.00791,  3:-0.01937,  2: 0.03423,  1:-0.00774
    26 |      |  8:-0.02683,  7: 0.17253,  6: 0.22625,  5:-0.05612,  4: 0.00096,  3:-0.08131,  2: 0.30725,  1: 0.10836
    27 |      |  8:-0.02915,  7:-0.31655,  6:-0.36601,  5: 0.04386,  4: 0.00432,  3: 0.13888,  2:-0.57331,  1:-0.22242
    28 |      |  8:-0.03342,  7:-0.20122,  6:-0.25437,  5: 0.01428,  4: 0.01126,  3: 0.07909,  2:-0.38668,  1:-0.15899
    29 |      |  8:-0.02296,  7: 0.06446,  6: 0.09192,  5:-0.03630,  4:-0.00536,  3:-0.03419,  2: 0.10408,  1: 0.03348
    30 |      |  8:-0.03313,  7:-0.39090,  6:-0.44448,  5: 0.05201,  4: 0.03190,  3: 0.19379,  2:-0.70185,  1:-0.28460
    31 |      |  8:-0.02359,  7:-0.46469,  6:-0.51290,  5: 0.06147,  4: 0.03897,  3: 0.24597,  2:-0.80363,  1:-0.32167
    32 |      |  8:-0.02433,  7: 0.27723,  6: 0.34453,  5:-0.05775,  4:-0.00338,  3:-0.12747,  2: 0.48831,  1: 0.16627
    33 |      |  8:-0.01568,  7:-0.78818,  6:-0.74998,  5: 0.11304,  4: 0.11416,  3: 0.57179,  2:-1.23430,  1:-0.48739
    34 |      |  8:-0.02127,  7:-0.39446,  6:-0.45488,  5: 0.04205,  4: 0.01881,  3: 0.20635,  2:-0.71236,  1:-0.28011
    35 |      |  8:-0.01892,  7:-0.86914,  6:-0.79524,  5: 0.12852,  4: 0.15148,  3: 0.64926,  2:-1.32139,  1:-0.51397
    36 |      |  8:-0.03821,  7: 0.29251,  6: 0.35653,  5:-0.07076,  4:-0.00602,  3:-0.13717,  2: 0.52158,  1: 0.17353
    37 |      |  8:-0.02262,  7:-0.43792,  6:-0.48279,  5: 0.06117,  4: 0.02368,  3: 0.22616,  2:-0.77179,  1:-0.30375
    38 |      |  8:-0.03634,  7:-0.51536,  6:-0.55290,  5: 0.06048,  4: 0.04707,  3: 0.30392,  2:-0.87704,  1:-0.35150
    39 |      |  8:-0.03777,  7: 0.32394,  6: 0.37760,  5:-0.07609,  4:-0.00728,  3:-0.15012,  2: 0.53993,  1: 0.19129
    40 |      |  8:-0.02422,  7:-0.29002,  6:-0.32583,  5: 0.03574,  4: 0.01274,  3: 0.11868,  2:-0.51282,  1:-0.20707
    41 |      |  8:-0.04221,  7: 0.52292,  6: 0.56865,  5:-0.08885,  4:-0.04104,  3:-0.31113,  2: 0.85762,  1: 0.30792
    42 |      |  8:-0.03029,  7: 0.19147,  6: 0.22591,  5:-0.04668,  4:-0.00249,  3:-0.07348,  2: 0.31056,  1: 0.09676
    43 |      |  8:-0.02310,  7: 0.26002,  6: 0.31930,  5:-0.05874,  4:-0.01511,  3:-0.10620,  2: 0.44779,  1: 0.14926
    44 |      |  8:-0.02528,  7:-0.30855,  6:-0.35688,  5: 0.04060,  4: 0.00381,  3: 0.12455,  2:-0.55093,  1:-0.22088
    45 |      |  8:-0.04121,  7:-0.62148,  6:-0.62483,  5: 0.07480,  4: 0.07979,  3: 0.39513,  2:-1.01905,  1:-0.40629
    46 |      |  8:-0.02512,  7: 0.03921,  6: 0.06386,  5:-0.01555,  4: 0.00268,  3:-0.02124,  2: 0.06527,  1: 0.00630
    47 |      |  8:-0.03993,  7: 0.55392,  6: 0.58487,  5:-0.09224,  4:-0.04895,  3:-0.32581,  2: 0.89507,  1: 0.32499
    48 |      |  8:-0.02478,  7:-0.58129,  6:-0.58954,  5: 0.08428,  4: 0.05577,  3: 0.35190,  2:-0.95698,  1:-0.38457
    49 |      |  9: 0.50613, 10:-0.53158, 11:-0.97265, 12: 1.06394, 13:-1.57189, 14: 1.05690, 15:-1.47691, 16:-0.88185, 17:-0.53484,
                18:-0.25878, 19: 0.60834, 20:-1.38940, 21:-0.96385, 22:-0.57439, 23: 0.18326, 24: 1.00753, 25: 0.04746, 26: 0.44872,
                27:-0.83453, 28:-0.54663, 29: 0.16016, 30:-1.05261, 31:-1.24617, 32: 0.72164, 33:-2.12343, 34:-1.06929, 35:-2.31105,
                36: 0.76618, 37:-1.17386, 38:-1.38430, 39: 0.81441, 40:-0.74296, 41: 1.38032, 42: 0.45418, 43: 0.65993, 44:-0.80562,
                45:-1.66537, 46: 0.09794, 47: 1.45049, 48:-1.54371
-------|------|---------------------------------------------------------------------------------------------------------------------


layer definition section :

layer | unitNo.
------|----------------------------------------------------------------------------------------------------------------------------
    2 |  9, 10, 11, 12, 13, 14, 15, 16, 17, 18, 19, 20, 21, 22, 23, 24, 25, 26, 27, 28, 29, 30, 31, 32, 33, 34, 35, 36, 37, 38, 39,
        40, 41, 42, 43, 44, 45, 46, 47, 48
    3 | 49
------|----------------------------------------------------------------------------------------------------------------------------
